digraph Tree {
node [shape=box, style="filled, rounded", color="black", fontname="helvetica"] ;
edge [fontname="helvetica"] ;
0 [label="petal length (cm) <= 2.6\ngini = 0.664\nsamples = 120\nvalue = [39, 36, 45]\nclass = virginica", fillcolor="#f6f0fd"] ;
1 [label="gini = 0.0\nsamples = 39\nvalue = [39, 0, 0]\nclass = setosa", fillcolor="#e58139"] ;
0 -> 1 [labeldistance=2.5, labelangle=45, headlabel="True"] ;
2 [label="petal width (cm) <= 1.75\ngini = 0.494\nsamples = 81\nvalue = [0, 36, 45]\nclass = virginica", fillcolor="#e6d7fa"] ;
0 -> 2 [labeldistance=2.5, labelangle=-45, headlabel="False"] ;
3 [label="petal length (cm) <= 4.95\ngini = 0.18\nsamples = 40\nvalue = [0, 36, 4]\nclass = versicolor", fillcolor="#4fe88f"] ;
2 -> 3 ;
4 [label="petal width (cm) <= 1.65\ngini = 0.054\nsamples = 36\nvalue = [0, 35, 1]\nclass = versicolor", fillcolor="#3fe685"] ;
3 -> 4 ;
5 [label="gini = 0.0\nsamples = 35\nvalue = [0, 35, 0]\nclass = versicolor", fillcolor="#39e581"] ;
4 -> 5 ;
6 [label="gini = 0.0\nsamples = 1\nvalue = [0, 0, 1]\nclass = virginica", fillcolor="#8139e5"] ;
4 -> 6 ;
7 [label="sepal length (cm) <= 6.5\ngini = 0.375\nsamples = 4\nvalue = [0, 1, 3]\nclass = virginica", fillcolor="#ab7bee"] ;
3 -> 7 ;
8 [label="gini = 0.0\nsamples = 3\nvalue = [0, 0, 3]\nclass = virginica", fillcolor="#8139e5"] ;
7 -> 8 ;
9 [label="gini = 0.0\nsamples = 1\nvalue = [0, 1, 0]\nclass = versicolor", fillcolor="#39e581"] ;
7 -> 9 ;
10 [label="gini = 0.0\nsamples = 41\nvalue = [0, 0, 41]\nclass = virginica", fillcolor="#8139e5"] ;
2 -> 10 ;
}